//Numpy array shape [161, 6]
//Min -1.125000000000
//Max 1.250000000000
//Number of zeros 483

#ifndef W2_H_
#define W2_H_

#ifndef __SYNTHESIS__
weight2_t w2[966];
#else
weight2_t w2[966] = {-0.875, -0.750, 0.750, -1.000, 0.000, -0.875, -0.875, -0.750, 0.750, -1.000, 0.000, -0.750, -0.875, 0.000, 0.875, 0.000, 0.000, 0.000, -0.875, -0.750, 0.875, -1.000, 0.000, -0.875, -0.750, -0.875, 0.875, -1.000, 0.000, -0.875, -0.875, 0.000, 0.875, -0.875, 0.000, -1.000, 0.000, 0.000, 0.750, -1.000, 0.375, -0.875, -0.875, -0.875, 0.875, 0.000, 0.000, 0.000, -0.875, -0.750, 0.875, 0.000, 0.000, -1.000, -0.875, -0.750, 0.000, -1.000, 0.000, -1.000, -0.875, -0.875, 0.750, -1.000, 0.000, -0.875, -1.000, -0.750, 0.875, 0.000, 0.500, -0.750, 0.000, -0.875, 0.875, -0.875, 0.500, -0.875, 0.000, -0.750, 0.000, 0.000, 0.000, -0.875, -0.875, -0.875, 0.750, 0.000, 0.500, -1.000, 0.000, -0.750, 0.750, -0.875, 0.000, -0.750, 0.000, 0.000, 0.875, -0.875, 0.500, 0.000, -0.875, -0.750, 0.875, 0.000, 0.000, 0.000, 0.000, -0.750, 0.875, -0.875, 0.000, 0.000, 0.000, 0.000, 0.875, 0.000, 0.000, -0.875, 0.000, 0.000, 0.875, -0.875, 0.500, 0.000, 0.000, 0.000, 0.875, -0.875, 0.000, 0.000, 0.000, -0.875, 0.750, -0.875, 0.000, -0.875, -0.875, 0.000, 0.750, -0.875, 0.000, -1.000, -0.875, -0.875, 0.000, 0.000, 0.000, 0.000, -0.750, -0.750, 0.750, 0.000, 0.000, 0.000, 0.000, -0.750, 0.000, -1.000, 0.375, -0.875, 0.000, 0.000, 0.000, -0.750, 0.000, 0.000, -0.750, -0.750, 0.000, 0.000, 0.000, -0.875, 0.000, 0.000, 0.000, -0.875, 0.000, -0.875, -0.750, 0.000, 0.750, -0.750, 0.000, -0.875, -0.750, -0.750, 0.750, -0.750, 0.000, -0.750, 0.000, 0.000, 0.625, -0.875, 0.000, -0.875, 0.000, 0.000, 0.000, 0.000, 0.000, 0.000, -0.625, 0.000, 0.625, 0.000, 0.000, -0.750, 0.000, -0.625, 0.000, -0.625, 0.000, 0.000, -0.750, 0.000, 0.625, -0.750, 0.000, -0.750, 0.000, 0.000, 0.000, -0.750, 0.000, -0.750, 0.000, -0.625, 0.625, 0.000, 0.000, 0.000, 0.000, -0.625, 0.000, 0.000, 0.000, 0.000, -0.625, 0.000, 0.000, 0.000, 0.000, 0.000, -0.625, 0.000, 0.000, -0.625, 0.000, 0.000, 0.000, 0.000, 0.000, 0.000, 0.000, 0.000, 0.000, 0.000, 0.000, 0.000, 0.000, 0.000, 0.000, 0.000, 0.000, -0.625, 0.000, 0.000, 0.000, 0.000, 0.000, 0.000, 0.000, 0.000, 0.000, 0.000, 0.000, 0.000, 0.000, 0.000, 0.000, 0.000, 0.000, 0.000, 0.000, 0.000, 0.000, 0.000, 0.000, 0.000, 0.000, 0.000, 0.000, 0.000, 0.000, 0.000, 0.000, 0.000, 0.000, 0.000, 0.000, 0.000, 0.000, 0.000, 0.000, 0.000, 0.000, 0.000, 0.000, 0.000, 0.000, 0.000, 0.000, 0.000, 0.000, 0.000, 0.000, 0.000, 0.000, 0.000, 0.000, 0.000, 0.000, 0.000, 0.000, 0.000, 0.000, 0.000, 0.000, 0.000, 0.000, 0.000, 0.000, 0.000, 0.000, 0.000, 0.000, 0.000, 0.000, 0.000, 0.000, 0.000, 0.000, 0.000, 0.000, 0.000, 0.000, 0.000, 0.000, 0.000, 0.000, 0.000, 0.000, 0.000, 0.000, 0.000, 0.000, 0.000, 0.000, 0.000, 0.000, 0.000, 0.000, 0.000, 0.000, 0.000, 0.000, 0.000, 0.000, 0.000, 0.000, 0.000, 0.000, 0.000, 0.000, 0.000, 0.000, 0.000, 0.000, 0.000, 0.000, 0.000, 0.000, 0.000, 0.000, 0.000, 0.000, 0.000, 0.000, 0.000, 0.000, 0.000, 0.000, 0.000, 0.000, 0.000, 0.000, 0.000, 0.000, 0.000, 0.000, 0.000, 0.000, 0.000, 0.000, 0.000, 0.000, 0.000, 0.000, 0.000, 0.000, 0.000, 0.000, 0.000, 0.000, 0.000, 0.000, 0.000, 0.000, 0.000, 0.000, 0.000, 0.000, 0.000, 0.000, 0.000, 0.000, 0.000, 0.000, 0.000, 0.000, 0.000, 0.000, 0.000, 0.000, 0.000, 0.000, 0.000, -0.500, 0.000, 0.000, 0.000, 0.000, 0.000, 0.000, 0.500, 0.000, 0.000, 0.000, 0.000, 0.000, 0.000, 0.000, 0.500, 0.000, 0.000, 0.000, 0.000, 0.000, 0.000, 0.000, 0.500, 0.000, 0.000, 0.000, 0.000, 0.000, 0.000, 0.000, 0.000, 0.000, 0.000, 0.500, 0.000, -0.500, 0.000, 0.000, 0.000, 0.000, 0.000, 0.000, 0.000, 0.000, 0.000, 0.000, 0.000, 0.000, 0.000, 0.000, 0.500, 0.625, 0.000, -0.500, 0.625, 0.000, 0.500, 0.625, 0.000, -0.625, 0.000, 0.000, 0.625, 0.000, 0.500, -0.625, 0.625, 0.000, 0.000, 0.000, 0.000, -0.625, 0.000, 0.000, 0.500, 0.000, 0.000, 0.000, 0.000, -0.375, 0.625, 0.750, 0.000, 0.000, 0.000, 0.000, 0.625, 0.625, 0.625, -0.625, 0.750, 0.000, 0.000, 0.000, 0.750, 0.000, 0.750, 0.000, 0.000, 0.750, 0.000, -0.625, 0.000, -0.500, 0.625, 0.750, 0.000, 0.000, 0.750, 0.000, 0.750, 0.000, 0.625, 0.000, 0.000, -0.375, 0.000, 0.000, 0.750, -0.750, 0.750, 0.000, 0.750, 0.750, 0.750, -0.625, 0.750, 0.000, 0.000, 0.000, 0.750, -0.875, 0.875, -0.375, 0.000, 0.875, 0.625, 0.000, 0.875, -0.500, 0.750, 0.750, 0.875, -0.625, 0.000, 0.000, 0.875, 0.875, 0.750, 0.000, 0.000, 0.000, 0.000, 0.000, 0.000, 0.000, 0.875, 0.000, 0.750, 0.875, 0.750, -0.750, 0.875, 0.000, 0.000, 0.000, 0.000, -0.750, 0.875, 0.000, 0.000, 0.000, 0.875, 0.000, 1.000, 0.000, 0.000, 0.875, 0.875, -1.000, 0.000, 0.000, 0.875, 0.875, 0.875, 0.000, 1.000, -0.375, 0.875, 0.875, 0.750, -0.875, 1.000, -0.500, 0.875, 1.000, 0.750, -0.875, 1.000, -0.500, 0.875, 1.000, 0.750, -0.750, 0.000, -0.500, 0.875, 0.875, 0.750, -0.875, 0.000, 0.000, 0.875, 0.000, 0.000, -1.000, 1.125, -0.500, 0.875, 0.875, 0.875, -1.000, 0.000, 0.000, 0.000, 0.000, 0.000, -1.000, 1.125, -0.500, 1.000, 0.875, 1.000, -1.000, 1.000, 0.000, 1.000, 0.000, 0.750, -0.875, 1.000, 0.000, 0.875, 0.875, 1.000, -1.000, 1.000, 0.000, 0.875, 1.000, 1.000, -0.875, 1.000, -0.500, 1.125, 0.000, 0.000, 0.000, 1.125, 0.000, 0.875, 1.000, 0.000, -0.875, 1.000, 0.000, 1.125, 1.000, 0.000, -0.875, 0.000, -0.500, 1.125, 0.000, 0.875, -1.125, 1.125, -0.500, 1.000, 1.000, 1.000, -0.875, 0.000, 0.000, 1.000, 0.875, 0.875, 0.000, 1.250, -0.500, 1.125, 1.125, 0.000, -1.125, 1.125, 0.000, 0.000, 1.000, 1.000, 0.000, 1.125, -0.500, 1.000, 1.000, 1.000, -1.000, 1.000, 0.000, 0.000, 1.125, 1.000, -1.000, 0.000, -0.500, 1.000, 1.125, 1.000, -1.125, 0.000, 0.000, 1.125, 0.875, 0.000, -0.875, 1.125, -0.500, 1.125, 1.000, 0.875, -1.000, 1.125, -0.375, 1.000, 1.000, 1.000, -1.000, 1.000, 0.000, 0.000, 1.125, 0.875, -1.125, 1.125, -0.500, 1.000, 0.875, 1.000, -0.875, 0.000, 0.000, 1.000, 0.875, 1.000, 0.000, 1.125, -0.500, 0.000, 1.000, 0.000, -1.000, 1.000, 0.000, 1.125, 1.125, 1.000, -0.875, 1.125, -0.500, 1.125, 1.125, 1.000, -1.125, 1.000, -0.500, 1.125, 1.125, 1.000, -1.125, 1.125, -0.375, 1.000, 1.000, 1.000, -1.125, 0.000, -0.375, 1.000, 1.125, 1.000, -1.000, 1.125, 0.000, 1.125, 1.000, 1.000, -1.125, 1.125, -0.500, 0.000, 0.875, 0.000, -1.125, 1.125, -0.500, 1.125, 1.125, 0.875, -1.125, 1.250, -0.625, 1.125, 1.000, 0.000, 0.000, 1.250, -0.625, 1.000, 1.125, 0.875, -0.875, 0.000, -0.500, 1.125, 1.000, 0.875, -0.875, 0.000, -0.500, 1.125, 1.000, 0.000, 0.000, 1.125, -0.500, 1.250, 0.000, 1.000, -1.000, 1.250, -0.500, 1.125, 1.000, 0.875, -1.125, 1.125, 0.000, 1.000, 1.000, 0.000, 0.000, 1.250, -0.500, 1.125, 1.125, 1.000, -1.000, 1.250, 0.000, 1.000, 1.000, 1.125, -1.125, 1.250, 0.000, 1.125, 1.125, 1.000, -1.000, 1.250, 0.000, 1.000, 1.000, 1.000, -1.000, 0.000, 0.000, 1.250, 0.000, 1.125, -1.125, 0.000, -0.500, 1.250, 1.000, 1.000, -1.125, 1.125, -0.500, 1.125, 1.250, 0.000, -1.125, 0.000, -0.375, 1.125, 1.000, 1.000, -1.000, 1.250, -0.625, 1.000, 1.250, 1.000, -1.125, 1.250, -0.500, 1.125, 1.125, 0.000, -1.125, 1.250, -0.500, 1.250, 1.125, 1.000, -0.875, 1.250, -0.500, 1.125, 1.125, 1.125, -1.125, 0.000, -0.625, 1.250};

#endif

#endif
